FANN_FLO_2.1
num_layers=3
learning_rate=0.700000
connection_rate=1.000000
network_type=0
learning_momentum=0.000000
training_algorithm=3
train_error_function=1
train_stop_function=0
cascade_output_change_fraction=0.010000
quickprop_decay=-0.000100
quickprop_mu=1.750000
rprop_increase_factor=1.200000
rprop_decrease_factor=0.500000
rprop_delta_min=0.000000
rprop_delta_max=50.000000
rprop_delta_zero=0.100000
cascade_output_stagnation_epochs=12
cascade_candidate_change_fraction=0.010000
cascade_candidate_stagnation_epochs=12
cascade_max_out_epochs=150
cascade_min_out_epochs=50
cascade_max_cand_epochs=150
cascade_min_cand_epochs=50
cascade_num_candidate_groups=2
bit_fail_limit=3.49999994039535522461e-01
cascade_candidate_limit=1.00000000000000000000e+03
cascade_weight_multiplier=4.00000005960464477539e-01
cascade_activation_functions_count=10
cascade_activation_functions=3 5 7 8 10 11 14 15 16 17 
cascade_activation_steepnesses_count=4
cascade_activation_steepnesses=2.50000000000000000000e-01 5.00000000000000000000e-01 7.50000000000000000000e-01 1.00000000000000000000e+00 
layer_sizes=23 11 5 
scale_included=0
neurons (num_inputs, activation_function, activation_steepness)=(0, 0, 0.00000000000000000000e+00) (0, 0, 0.00000000000000000000e+00) (0, 0, 0.00000000000000000000e+00) (0, 0, 0.00000000000000000000e+00) (0, 0, 0.00000000000000000000e+00) (0, 0, 0.00000000000000000000e+00) (0, 0, 0.00000000000000000000e+00) (0, 0, 0.00000000000000000000e+00) (0, 0, 0.00000000000000000000e+00) (0, 0, 0.00000000000000000000e+00) (0, 0, 0.00000000000000000000e+00) (0, 0, 0.00000000000000000000e+00) (0, 0, 0.00000000000000000000e+00) (0, 0, 0.00000000000000000000e+00) (0, 0, 0.00000000000000000000e+00) (0, 0, 0.00000000000000000000e+00) (0, 0, 0.00000000000000000000e+00) (0, 0, 0.00000000000000000000e+00) (0, 0, 0.00000000000000000000e+00) (0, 0, 0.00000000000000000000e+00) (0, 0, 0.00000000000000000000e+00) (0, 0, 0.00000000000000000000e+00) (0, 0, 0.00000000000000000000e+00) (23, 5, 5.00000000000000000000e-01) (23, 5, 5.00000000000000000000e-01) (23, 5, 5.00000000000000000000e-01) (23, 5, 5.00000000000000000000e-01) (23, 5, 5.00000000000000000000e-01) (23, 5, 5.00000000000000000000e-01) (23, 5, 5.00000000000000000000e-01) (23, 5, 5.00000000000000000000e-01) (23, 5, 5.00000000000000000000e-01) (23, 5, 5.00000000000000000000e-01) (0, 5, 0.00000000000000000000e+00) (11, 5, 5.00000000000000000000e-01) (11, 5, 5.00000000000000000000e-01) (11, 5, 5.00000000000000000000e-01) (11, 5, 5.00000000000000000000e-01) (0, 5, 0.00000000000000000000e+00) 
connections (connected_to_neuron, weight)=(0, 2.11227595806121826172e-01) (1, 8.75863656401634216309e-02) (2, 5.76190203428268432617e-02) (3, 9.97326523065567016602e-02) (4, -2.59727150201797485352e-01) (5, 5.37185631692409515381e-02) (6, 4.05289232730865478516e-01) (7, -1.69664955139160156250e+00) (8, -5.41517734527587890625e-01) (9, 8.47176685929298400879e-02) (10, 6.86831057071685791016e-01) (11, 4.47105973958969116211e-01) (12, 9.45756912231445312500e-01) (13, 2.08059358596801757812e+00) (14, -7.34706258773803710938e+00) (15, 8.68447363376617431641e-01) (16, 4.85226094722747802734e-01) (17, 7.67767488956451416016e-01) (18, 3.30497205257415771484e-01) (19, 4.24705922603607177734e-01) (20, 1.17712607607245445251e-02) (21, 4.57545280456542968750e-01) (22, 4.39341425895690917969e-01) (0, -1.85788199305534362793e-01) (1, 8.92468448728322982788e-03) (2, -1.38375654816627502441e-01) (3, -1.00959658622741699219e+00) (4, 6.84373855590820312500e-01) (5, 9.02391970157623291016e-01) (6, 6.10758161544799804688e+00) (7, 4.30882990360260009766e-01) (8, 4.13669109344482421875e+00) (9, 2.94345557689666748047e-01) (10, 9.23979878425598144531e-01) (11, 8.87210071086883544922e-01) (12, 5.27462780475616455078e-01) (13, 1.86823715921491384506e-03) (14, 6.40208125114440917969e-01) (15, 6.14745691418647766113e-02) (16, 5.51840662956237792969e-01) (17, 8.21670234203338623047e-01) (18, 8.46785485744476318359e-01) (19, 9.59047019481658935547e-01) (20, 9.01441693305969238281e-01) (21, 8.44099819660186767578e-02) (22, 3.43336313962936401367e-01) (0, 1.24290621280670166016e+00) (1, 4.30184513330459594727e-01) (2, -9.48776364326477050781e-01) (3, -2.13156223297119140625e+00) (4, 2.79533445835113525391e-01) (5, 2.43462085723876953125e-01) (6, 4.24845188856124877930e-01) (7, 5.20851649343967437744e-02) (8, 4.47606849670410156250e+00) (9, 8.09554457664489746094e-02) (10, 2.94739067554473876953e-01) (11, 1.10948704183101654053e-01) (12, 5.13396084308624267578e-01) (13, 6.28648698329925537109e-01) (14, 7.56848514080047607422e-01) (15, 2.80414849519729614258e-01) (16, 4.26340997219085693359e-01) (17, 5.77392458915710449219e-01) (18, 8.02774369716644287109e-01) (19, 6.66981518268585205078e-01) (20, 4.73792791366577148438e-01) (21, 2.55749046802520751953e-01) (22, 9.95927214622497558594e-01) (0, -5.46927750110626220703e-01) (1, 4.27352935075759887695e-01) (2, 2.29883521795272827148e-01) (3, 2.15250864624977111816e-01) (4, 9.19247090816497802734e-01) (5, 8.97631049156188964844e-01) (6, 6.83193743228912353516e-01) (7, 3.47687983512878417969e+00) (8, 9.66851651668548583984e-01) (9, 3.48035275936126708984e-01) (10, -6.23073838651180267334e-02) (11, 3.36003452539443969727e-02) (12, 2.49972060322761535645e-01) (13, -1.16764616966247558594e+00) (14, 8.71271252632141113281e-01) (15, 2.98883605003356933594e+00) (16, 3.46604399383068084717e-02) (17, 8.73455822467803955078e-01) (18, 3.42389822006225585938e-01) (19, 4.28295671939849853516e-01) (20, 6.91780507564544677734e-01) (21, 4.39969033002853393555e-01) (22, 9.37079191207885742188e-01) (0, -6.86019480228424072266e-01) (1, 6.95573747158050537109e-01) (2, -8.63976925611495971680e-02) (3, 3.13424587249755859375e-01) (4, 1.28312218189239501953e+00) (5, 4.71774131059646606445e-01) (6, 2.95049399137496948242e-01) (7, 9.29223835468292236328e-01) (8, 1.08145570755004882812e+00) (9, 9.65557515621185302734e-01) (10, 3.69766026735305786133e-01) (11, 4.26286935806274414062e-01) (12, 1.50471106171607971191e-01) (13, -2.44455143809318542480e-01) (14, 5.72406113147735595703e-01) (15, 6.30824640393257141113e-02) (16, 3.41701000928878784180e-01) (17, 7.14717924594879150391e-01) (18, 7.32626676559448242188e-01) (19, 6.36474788188934326172e-02) (20, 3.43570980476215481758e-04) (21, -1.86505109071731567383e-01) (22, 8.75512957572937011719e-01) (0, 1.42533496022224426270e-01) (1, 8.88351440429687500000e-01) (2, -9.56139266490936279297e-02) (3, -3.86715456843376159668e-02) (4, -2.81165742874145507812e+00) (5, 5.21138191223144531250e-01) (6, 1.35384025573730468750e+01) (7, 1.02148556709289550781e+00) (8, 1.39905035495758056641e-01) (9, 5.41131496429443359375e-01) (10, -8.57077503204345703125e+00) (11, -2.09868103265762329102e-02) (12, -1.20067730545997619629e-01) (13, 7.13860392570495605469e-01) (14, -1.31468753814697265625e+01) (15, 4.47647333145141601562e-01) (16, 1.49325542449951171875e+01) (17, 9.61388468742370605469e-01) (18, 4.04049038887023925781e-01) (19, 7.79998540878295898438e-01) (20, 1.89426511526107788086e-01) (21, 2.67913997173309326172e-01) (22, 4.09398049116134643555e-01) (0, -2.32596158981323242188e-01) (1, 5.30136406421661376953e-01) (2, 6.69723570346832275391e-01) (3, 5.36958634853363037109e-01) (4, 2.99113035202026367188e-01) (5, 8.40618193149566650391e-01) (6, 2.00900301337242126465e-01) (7, 7.38271713256835937500e-01) (8, -2.17401400208473205566e-01) (9, -5.95853244885802268982e-03) (10, 3.08802872896194458008e-01) (11, 7.98932611942291259766e-01) (12, 5.21347045898437500000e-01) (13, 8.00777137279510498047e-01) (14, 6.62858963012695312500e-01) (15, 6.56830191612243652344e-01) (16, 1.00193023681640625000e+00) (17, 2.73107051849365234375e-01) (18, 5.52874743938446044922e-01) (19, 6.04798913002014160156e-01) (20, 7.88677453994750976562e-01) (21, 5.12038648128509521484e-01) (22, 5.43869018554687500000e-01) (0, -9.23201143741607666016e-01) (1, 2.56250709295272827148e-01) (2, 8.96474897861480712891e-01) (3, 6.73329889774322509766e-01) (4, 5.08161008358001708984e-01) (5, 9.49499905109405517578e-01) (6, 4.58535701036453247070e-01) (7, 8.02052259445190429688e-01) (8, 4.67635929584503173828e-01) (9, 1.28710031509399414062e+00) (10, -5.88215053081512451172e-01) (11, 6.85916125774383544922e-01) (12, 1.75301492214202880859e-01) (13, 1.79290995001792907715e-01) (14, 8.97373139858245849609e-01) (15, 2.30357989668846130371e-01) (16, -1.54962420463562011719e+00) (17, 9.66072559356689453125e-01) (18, 6.53550267219543457031e-01) (19, 3.70775938034057617188e-01) (20, 3.12204599380493164062e-01) (21, 1.18661046028137207031e-01) (22, 4.59689885377883911133e-01) (0, -9.14087668061256408691e-02) (1, 2.02207285910844802856e-02) (2, 3.18848878145217895508e-01) (3, 2.61940717697143554688e-01) (4, 4.93884533643722534180e-01) (5, 1.03816445916891098022e-02) (6, 7.56998360157012939453e-02) (7, 9.28695350885391235352e-02) (8, 3.91711801290512084961e-01) (9, 4.27807383239269256592e-02) (10, 7.96518087387084960938e-01) (11, 4.27378386259078979492e-01) (12, 7.27110385894775390625e-01) (13, 8.15503060817718505859e-01) (14, 3.58199596405029296875e-01) (15, 2.93690532445907592773e-01) (16, 2.55466908216476440430e-01) (17, 2.92688667774200439453e-01) (18, 9.49833989143371582031e-01) (19, 4.56911742687225341797e-01) (20, 7.12411284446716308594e-01) (21, 4.06627744436264038086e-01) (22, 5.14196604490280151367e-02) (0, -4.17314827442169189453e-01) (1, 9.67570364475250244141e-01) (2, -1.47667109966278076172e-01) (3, 9.22559678554534912109e-01) (4, 7.63832926750183105469e-01) (5, 1.02841079235076904297e+00) (6, 1.18147099018096923828e+00) (7, 8.65235269069671630859e-01) (8, 3.09804975986480712891e-01) (9, 4.72521334886550903320e-01) (10, -4.71531957387924194336e-01) (11, 7.66740679740905761719e-01) (12, -5.29786765575408935547e-01) (13, -2.34715774655342102051e-01) (14, 8.53286907076835632324e-02) (15, 7.21750438213348388672e-01) (16, 3.67482572793960571289e-01) (17, 9.90590453147888183594e-01) (18, -1.54940080642700195312e+01) (19, 9.22948777675628662109e-01) (20, 5.09676158428192138672e-01) (21, -1.99877071380615234375e+00) (22, 2.35448867082595825195e-01) (23, -7.61239171028137207031e-01) (24, -9.46625113487243652344e-01) (25, -1.28615593910217285156e+00) (26, 5.32558321952819824219e-01) (27, -8.77855271100997924805e-02) (28, -8.58482271432876586914e-02) (29, 1.03191387653350830078e+00) (30, -1.83215475082397460938e+00) (31, 2.39855766296386718750e-01) (32, 9.15792226791381835938e-01) (33, 1.16808974742889404297e+00) (23, 8.83466184139251708984e-01) (24, -6.65891170501708984375e-01) (25, 7.87871420383453369141e-01) (26, 1.04406759142875671387e-01) (27, 7.70815014839172363281e-01) (28, -2.46463441848754882812e+00) (29, 1.32382169365882873535e-01) (30, 7.27331519126892089844e-01) (31, 7.71329104900360107422e-01) (32, -2.20307779312133789062e+00) (33, 4.33749616146087646484e-01) (23, -1.93600761890411376953e+00) (24, 8.22252392768859863281e-01) (25, 8.54006111621856689453e-01) (26, 1.96677112579345703125e+00) (27, 9.16981935501098632812e-01) (28, 3.01739358901977539062e+00) (29, -3.40174883604049682617e-01) (30, 1.46074223518371582031e+00) (31, 3.62201839685440063477e-01) (32, 7.31764853000640869141e-01) (33, -3.12887400388717651367e-01) (23, 1.88628184795379638672e+00) (24, 4.67296451330184936523e-01) (25, -4.59993958473205566406e-01) (26, -3.80586695671081542969e+00) (27, -9.55304577946662902832e-02) (28, 1.34877443313598632812e-01) (29, 8.50011855363845825195e-02) (30, -3.36550176143646240234e-01) (31, 4.48595255613327026367e-01) (32, 2.80012279748916625977e-01) (33, 3.44075113534927368164e-01) 
